0.000000000000000000e+00 1.250000000000000000e-01 1.250000000000000000e-01 1.250000000000000000e-01 1.250000000000000000e-01 1.250000000000000000e-01 1.250000000000000000e-01 1.250000000000000000e-01 1.250000000000000000e-01
1.000000000000000021e-02 1.252915770486018043e-01 1.251145536844164852e-01 1.254487427519966614e-01 1.255585067321913773e-01 1.255553034553303915e-01 1.254823667067017923e-01 1.249831484128398340e-01 1.225658012079216402e-01
2.000000000000000042e-02 1.271218815380140144e-01 1.260580380813460522e-01 1.285840513837128163e-01 1.293194296473777205e-01 1.293481344605170724e-01 1.286601284980625481e-01 1.242656135348358115e-01 1.066427228561340201e-01
2.999999999999999889e-02 1.297539356836018287e-01 1.275635925480613220e-01 1.329877875778101015e-01 1.345274065221938875e-01 1.345924511144585001e-01 1.330861173960535271e-01 1.232678467874012002e-01 8.422086237041953583e-02
4.000000000000000083e-02 1.316217205964367865e-01 1.288438529041190661e-01 1.392168263482107537e-01 1.420806289427253288e-01 1.426854359273549699e-01 1.389975356791182393e-01 1.169261793169971697e-01 5.962782028503762349e-02
5.000000000000000278e-02 1.322121939325916484e-01 1.292134026527367308e-01 1.453500887724685775e-01 1.498728952527423885e-01 1.513318977898984730e-01 1.446959257044826141e-01 1.079187495301411753e-01 3.940484636493833681e-02
5.999999999999999778e-02 1.307360287918384878e-01 1.285212246120758239e-01 1.519247106786447699e-01 1.591535507239453529e-01 1.623480344825648791e-01 1.507983150913623505e-01 9.376971451066593022e-02 2.274842110890239189e-02
7.000000000000000666e-02 1.275270151789686113e-01 1.263809019986887050e-01 1.573431728764929927e-01 1.677366285933054590e-01 1.730928964711055118e-01 1.557386842923731973e-01 7.950073102491118926e-02 1.267996956415418271e-02
8.000000000000000167e-02 1.213188165104934491e-01 1.223567409267596329e-01 1.621438754257314430e-01 1.780654879331642626e-01 1.872725784704798724e-01 1.605483646608861781e-01 6.210771364273599826e-02 6.186422429749126491e-03
8.999999999999999667e-02 1.134502624595059156e-01 1.168474620945680886e-01 1.654182937105101447e-01 1.881587512119651251e-01 2.023004709591202932e-01 1.641263750961756418e-01 4.680488923108928195e-02 2.893495237065502046e-03
1.000000000000000056e-01 1.033500326111942980e-01 1.094518476773581744e-01 1.668699786457322753e-01 1.990699908279791874e-01 2.203136525055973405e-01 1.665651913784200189e-01 3.311472570553104788e-02 1.264580648187643491e-03
1.100000000000000006e-01 9.189843738771204251e-02 1.006029199447550510e-01 1.662361332265603064e-01 2.101840489559900216e-01 2.408019712875794638e-01 1.675025622961376637e-01 2.224168135230576715e-02 5.322455489596131023e-04
1.199999999999999956e-01 7.945533203562128721e-02 9.041137047309515118e-02 1.631195694728541645e-01 2.214348745544399422e-01 2.645433717868330148e-01 1.665919785886062487e-01 1.422530441656577431e-02 2.181986719843606939e-04
1.300000000000000044e-01 6.745830027926098815e-02 7.998885040756846532e-02 1.580901624302304409e-01 2.318049077579296124e-01 2.897581778694968135e-01 1.639574581348907378e-01 8.854750358453365722e-03 8.739276216962522958e-05
1.400000000000000133e-01 5.549185401292766606e-02 6.896546863569280594e-02 1.505437696429810790e-01 2.417685689540339800e-01 3.187369588849904289e-01 1.592203846897027597e-01 5.238920208948024890e-03 3.407497072316977385e-05
1.499999999999999944e-01 4.391762909872357068e-02 5.758959566007734732e-02 1.402300049366050627e-01 2.508876047399185016e-01 3.524323033089183932e-01 1.519972124979923067e-01 2.932043243796748910e-03 1.360651396812901237e-05
1.600000000000000033e-01 3.427547455590963799e-02 4.745945211705707850e-02 1.290339981505876643e-01 2.577782698786765248e-01 3.863893141594611502e-01 1.434393115889998627e-01 1.619038757883999426e-03 5.140791424107882558e-06
1.700000000000000122e-01 2.562285425473023390e-02 3.771468771828221517e-02 1.156897640805911315e-01 2.626918404901320003e-01 4.248655879503745458e-01 1.325602619605382171e-01 8.529771936229461156e-04 2.026351728775284603e-06
1.799999999999999933e-01 1.858266999778218631e-02 2.917870667770378415e-02 1.015343648873311688e-01 2.647487559709371108e-01 4.652550484948487219e-01 1.202643799784834655e-01 4.352852688195228388e-04 7.887240940557831671e-07
1.900000000000000022e-01 1.304196904085383468e-02 2.193201259209729553e-02 8.709560884409404957e-02 2.636454811148978838e-01 5.070957300540144264e-01 1.069749024266674897e-01 2.140120104399855427e-04 2.839169352473506304e-07
2.000000000000000111e-01 8.810229264305117006e-03 1.594115891254819714e-02 7.275378953456454467e-02 2.590360229113675694e-01 5.503422360805665381e-01 9.301327530416608758e-02 1.031650401005060244e-04 1.229523812656042872e-07
2.099999999999999922e-01 5.778181920336267555e-03 1.128825216671387049e-02 5.947137958613250841e-02 2.511366599961200596e-01 5.929370688736324002e-01 7.934149492668383929e-02 4.692255657975407578e-05 3.997380123679384792e-08
2.200000000000000011e-01 3.678171863186916087e-03 7.765038464300747303e-03 4.740163755581255911e-02 2.399981421202384835e-01 6.349270292628113044e-01 6.620697929702601403e-02 2.297892805332881600e-05 2.250857049832964804e-08
2.300000000000000100e-01 2.277570333767155869e-03 5.219779665114545816e-03 3.707030332646736592e-02 2.264817868411705681e-01 6.746144415537879135e-01 5.432602850816198314e-02 1.008207924477324546e-05 7.692285635401085621e-09
2.399999999999999911e-01 1.373253897050243609e-03 3.415970918806008651e-03 2.829449944763630029e-02 2.107226850077220381e-01 7.125395814387578408e-01 4.364927750734511058e-02 4.728057371892052900e-06 3.725310537011973982e-09
2.500000000000000000e-01 8.036006105892344641e-04 2.181854477381011889e-03 2.117638312887980268e-02 1.936744119576217782e-01 7.476779887791219492e-01 3.448376505378711321e-02 1.994723568807933995e-06 1.269050194098627508e-09
2.600000000000000089e-01 4.614327043473599060e-04 1.363835406076507580e-03 1.551537145746182539e-02 1.757244334602615088e-01 7.801861112652258567e-01 2.674789461142650093e-02 9.204903882854674513e-07 6.048121013710291701e-10
2.700000000000000178e-01 2.617648430381956182e-04 8.458926478864918497e-04 1.129852028835323305e-02 1.584104000362295261e-01 8.085594897788649371e-01 2.062354923963145500e-02 3.829566908507258981e-07 2.093053465097390542e-10
2.800000000000000266e-01 1.458362253154386336e-04 5.154599974192844393e-04 8.100316566916874322e-03 1.414465699430431933e-01 8.340984790953066552e-01 1.569316739007229136e-02 1.706863929547300529e-07 9.553330093810749449e-11
2.899999999999999800e-01 7.897050471744300817e-05 3.066932734700924634e-04 5.689682663962335359e-03 1.248705192882442333e-01 8.573122389014157241e-01 1.174182691352461047e-02 6.842249043559374024e-08 3.217518553291077833e-11
2.999999999999999889e-01 4.230974460539319005e-05 1.798648638569861182e-04 3.940762632673416692e-03 1.093195887487832391e-01 8.778330109113503532e-01 8.684431173809743776e-03 3.190804524123488547e-08 1.687565098214253500e-11
3.099999999999999978e-01 2.189278685399511412e-05 1.028749957422678057e-04 2.674180387560429022e-03 9.462315176109760417e-02 8.962596573025741753e-01 6.318230728116608005e-03 1.203288552677861990e-08 5.169373477229789137e-12
3.200000000000000067e-01 1.142620416951192316e-05 5.792958608652624871e-05 1.770489050952170525e-03 8.081731537593984938e-02 9.128359021533520856e-01 4.506931123018861202e-03 6.502904048292894017e-09 3.577052178942760059e-12
3.300000000000000155e-01 5.462991902691759627e-06 3.133916757145706908e-05 1.154004147867976901e-03 6.851961715283876042e-02 9.271092311337982839e-01 3.180343429720699534e-03 1.975585148999687077e-09 7.146717732574293713e-13
3.400000000000000244e-01 2.896041846222481949e-06 1.743570446036701881e-05 7.451792852646394946e-04 5.759876995483590584e-02 9.394138847171418227e-01 2.221832943692688203e-03 1.351959620425324190e-09 7.987970896397552151e-13
3.499999999999999778e-01 1.499727339232630590e-06 9.570069264643364261e-06 4.771507640648773099e-04 4.816777660827265689e-02 9.498017521105053262e-01 1.542249973553988605e-03 7.465262818690982209e-10 4.731151935779920323e-13
3.599999999999999867e-01 7.074161401491134715e-07 5.037369899454476811e-06 3.007919112241882412e-04 4.003199012125598782e-02 9.586015527550992843e-01 1.059920155673656260e-03 2.705599676195235188e-10 1.473184120467494679e-13
3.699999999999999956e-01 3.663332557526677337e-07 2.707325347314119673e-06 1.882519031998389865e-04 3.309729308842179057e-02 9.659875672482939324e-01 7.238138992242568138e-04 2.020915442496197504e-10 1.655996576431346692e-13
3.800000000000000044e-01 1.367895437309389615e-07 1.273807438457587388e-06 1.134137444002157781e-04 2.703144958482860474e-02 9.723695803973206875e-01 4.841456522138957454e-04 2.426050247693424119e-11 -6.337576707820993151e-15
3.900000000000000133e-01 8.573912374920987367e-08 7.285009027734206836e-07 6.991466888503183028e-05 2.194884971718132766e-02 9.776562277393887612e-01 3.241935912985184133e-04 4.318188701625553062e-11 3.802158324503640105e-14
4.000000000000000222e-01 6.487128762750063660e-08 4.581531534959621020e-07 4.326733466386863651e-05 1.771020494291680736e-02 9.820299444136249001e-01 2.160602287909286275e-04 5.550290326997302832e-11 5.954903660671719401e-14
4.099999999999999756e-01 2.457010290637123197e-08 2.119813617901071286e-07 2.524010656305154042e-05 1.418061729802130161e-02 9.856528431749598251e-01 1.410628582561939911e-04 1.072982834719279214e-11 4.803253966079015954e-15
4.199999999999999845e-01 1.657002777738420814e-08 1.219686563008353132e-07 1.506744737812459395e-05 1.129786229725663477e-02 9.885947226150811895e-01 9.220908380366230365e-05 1.777315655151882174e-11 2.331987270359346606e-14
4.299999999999999933e-01 7.277139098210121031e-09 5.936235177494976366e-08 8.740059388039876653e-06 8.981015835555321292e-03 9.909504110224626183e-01 5.976643727698143947e-05 5.820875284298249450e-12 5.317163056846158601e-15
4.400000000000000022e-01 1.172632392901500204e-09 2.215874420076499776e-08 4.887667997479340681e-06 7.100523327510824961e-03 9.928562706889139111e-01 3.829498799701744008e-05 -3.786319812505244457e-12 -9.660829793598610373e-15
4.500000000000000111e-01 3.848855623957270321e-09 2.174428100894112057e-08 3.058742021151786508e-06 5.570558246122448570e-03 9.944014486491101756e-01 2.490876166602156030e-05 7.929157390655531487e-12 1.438378770313049727e-14
4.600000000000000200e-01 2.031793663708563195e-09 1.252279080704336535e-08 1.779310637330387316e-06 4.342629759103110859e-03 9.956397013187080480e-01 1.587505470631716352e-05 2.259650574443846951e-12 1.097580568892282971e-15
4.699999999999999734e-01 -2.945604962850324609e-09 -3.072912900010416669e-09 7.789727236195528501e-07 3.368879660424273833e-03 9.966207396105861704e-01 9.607792051330345189e-06 -1.722271735998596309e-11 -4.469928749167710753e-14
4.799999999999999822e-01 -1.179548568154178066e-09 -1.191786882630019346e-09 4.405516762087801773e-07 2.603588455841401514e-03 9.973899141111676192e-01 6.059259121526211592e-06 -6.455157819894925692e-12 -1.613890699647133912e-14
4.899999999999999911e-01 4.608301162050247071e-09 1.127777775000384930e-08 5.162111127745308431e-07 2.006829512761660727e-03 9.979883359720991276e-01 4.302395914204024707e-06 2.197774991773276322e-11 5.534850639328200019e-14
5.000000000000000000e-01 1.423880126040174954e-09 5.824600799485124089e-09 3.298648853525485618e-07 1.541303126743304164e-03 9.984555793952064606e-01 2.780364568104060006e-06 1.278025265984144163e-13 -1.119132735406001784e-14
5.100000000000000089e-01 -4.815430850989434208e-09 -4.141236616539959228e-09 1.194339970256405327e-07 1.174736678531162256e-03 9.988235242448252338e-01 1.628643974588073396e-06 -4.450720557499185422e-11 -1.501240471636752135e-13
5.200000000000000178e-01 -1.640931530920322422e-09 -1.381454214267763882e-09 6.912021056639112612e-08 8.916828189799530600e-04 9.991072371642303329e-01 1.013933460804397946e-06 -1.444805356401242185e-11 -4.698894802638064189e-14
5.300000000000000266e-01 6.686421051918758422e-09 8.531913317035184571e-09 1.143352679401514483e-07 6.764164465405985479e-04 9.993227095414165539e-01 7.444027369185930375e-07 5.551618745634318979e-11 1.836842758000566463e-13
5.400000000000000355e-01 5.180606343686963806e-10 3.163005392490603765e-09 7.096865072045924497e-08 5.110739009062685492e-04 9.994883739683074753e-01 4.774942155029878176e-07 -1.305244533548838351e-11 -9.095473308282462037e-14
5.500000000000000444e-01 -1.340482341273295649e-08 -8.175129921347604739e-09 9.548298071420054134e-09 3.827960798905364866e-04 9.996169547094041485e-01 2.614165990904642491e-07 -1.734720594791006610e-10 -7.483230760517039508e-13
5.600000000000000533e-01 -7.517757208845194737e-09 -4.933521248946607125e-09 2.052802738950175029e-09 2.863510443215973463e-04 9.997135028576988880e-01 1.565911429184963375e-07 -9.428193239583307816e-11 -3.962067412039600601e-13
5.699999999999999512e-01 1.382911844861988868e-08 9.688041819447786028e-09 3.540666358938282513e-08 2.151443771586707891e-04 9.997846650017684356e-01 1.315249704137919847e-07 1.715225837348838427e-10 7.384212497381693789e-13
5.799999999999999600e-01 1.102396218107133770e-08 9.070609551419643174e-09 3.532071395795191196e-08 1.607561826502920709e-04 9.998390896446809339e-01 9.863892978441199459e-08 1.180156409007121483e-10 4.273516377641020763e-13
5.899999999999999689e-01 -3.904479096277754686e-08 -1.379481141132533827e-08 3.516394757747816115e-09 1.187055940746680084e-04 9.998812914403160113e-01 5.297128714455539104e-08 -6.785906348580385048e-10 -3.790259776556383457e-12
5.999999999999999778e-01 -4.337351022018822415e-08 -1.711700141996312475e-08 -7.075857146382368530e-09 8.751271934173286606e-05 9.999125274003561881e-01 2.817557773785696598e-08 -7.248616650020737319e-10 -3.951981725723869546e-12
6.099999999999999867e-01 2.025531290533136818e-08 7.762072250453319120e-09 8.463263212010542325e-09 6.481366002645944893e-05 9.999351271489420601e-01 2.235449132230503338e-08 3.538439302596730066e-10 2.000554761479253788e-12
6.199999999999999956e-01 6.655394842996714392e-08 2.681091063473208866e-08 2.278498026470977570e-08 4.806268008863243840e-05 9.999517986315878959e-01 2.141353348059412865e-08 1.118676599930506137e-09 6.129339214052106033e-12
6.300000000000000044e-01 -2.064778368554585611e-07 -4.482810344428586629e-08 -6.338271119117188491e-10 3.498868244615259231e-05 9.999652563798291371e-01 1.129948850906915795e-08 -4.389422099589939453e-09 -3.181739293930020762e-11
6.400000000000000133e-01 -5.486892292445295519e-07 -1.316922279486620664e-07 -2.496543417419488151e-08 2.512589831833830613e-05 9.999755875388878223e-01 3.350140939691841952e-09 -1.135823159091927169e-08 -8.031454712970008434e-11
6.500000000000000222e-01 -3.760246932534446773e-07 -9.332364262400916640e-08 -2.015185762231218951e-08 1.816608210489180616e-05 9.999823300967204398e-01 1.062807648238601654e-09 -7.686631814389469857e-09 -5.353524679531554642e-11
6.600000000000000311e-01 2.769694485054164406e-07 6.269627476210604481e-08 1.203784188230156509e-08 1.349867927258133080e-05 9.999861400115875876e-01 3.681826922145556193e-09 5.879825530043474642e-09 4.290154729391650013e-11
6.700000000000000400e-01 7.446776913012250433e-07 1.783110904414595927e-07 3.824210977465705001e-08 1.021602560360747585e-05 9.999888006521083783e-01 6.502122198187179258e-09 1.547675889675733069e-08 1.099021988581577563e-10
6.800000000000000488e-01 -1.220715946275160400e-07 1.684756465082440864e-08 1.760239615828166027e-08 7.416161156782383529e-06 9.999926712533763196e-01 4.216757436035665359e-09 -3.955850381270233211e-09 -5.254041025680902407e-11
6.899999999999999467e-01 -9.731155306030722705e-07 -1.342584069477034224e-07 -4.143903983144424608e-11 5.314809450547227859e-06 9.999958137527192870e-01 2.304165467734235462e-09 -2.322738418301144748e-08 -2.183459206742390510e-10
6.999999999999999556e-01 1.315337873221477925e-08 3.716970256091520897e-09 3.589525822332664322e-09 3.825756774001373859e-06 9.999961519092396278e-01 1.466484727268654440e-09 4.029299921363061495e-10 4.586604509935235679e-12
7.099999999999999645e-01 1.347439964827738519e-06 2.044808209700643227e-07 1.384945908273934746e-08 2.772438512298649277e-06 9.999956284966389219e-01 1.159383170819868377e-09 3.183543388242951700e-08 2.927794670342591118e-10
7.199999999999999734e-01 -5.363125595166375632e-07 -1.610314576080360875e-08 5.322789127901178948e-09 1.982726132710649226e-06 9.999985784571386871e-01 6.874113400975062725e-10 -1.455244543573359026e-08 -2.199793418136747179e-10
7.299999999999999822e-01 -1.934368011868064101e-06 -1.778738751261115509e-07 -7.466242910757694126e-10 1.410881751233174079e-06 1.000000751282887457e+00 3.756051137779147423e-10 -4.893346123021662350e-08 -6.036846173061702530e-10
7.399999999999999911e-01 3.468628362576571402e-07 3.508502035051821397e-08 1.732003275605904034e-09 1.009626194651501936e-06 9.999985974338982953e-01 2.461422415294990256e-10 8.900441837286994678e-09 1.107856477544359848e-10
7.500000000000000000e-01 2.690268028059803023e-06 2.663209903388671869e-07 5.628768017862100072e-09 7.256861222365226709e-07 9.999962431890536685e-01 1.946214617209182308e-10 6.787386104608530393e-08 8.187849597943359219e-10
7.600000000000000089e-01 5.776711798800309678e-08 4.590337276299442479e-08 2.391131256617469487e-09 5.147767299225226418e-07 9.999993780037997881e-01 1.155128027895842963e-10 1.149411197147885833e-09 -1.044254060247389744e-10
7.700000000000000178e-01 -5.018412092803936250e-07 -1.610319830223162478e-08 9.240798209077281543e-10 3.643914826256772698e-07 1.000000165743936575e+00 6.794431553169112463e-11 -1.292456228781362055e-08 -2.522784294658484476e-10
7.800000000000000266e-01 1.552720973041651713e-06 1.095567841451183600e-07 1.176003947044561933e-09 2.584091346244328783e-07 9.999980380899475829e-01 4.344744943770601715e-11 3.936948576175512507e-08 6.191094273193889688e-10
7.900000000000000355e-01 4.168569381268739403e-07 4.163989493723816460e-08 6.225781224594760040e-10 1.824982392447795424e-07 9.999993470051320443e-01 2.621646840330802245e-11 1.124668377925092857e-08 1.019356974799852020e-10
8.000000000000000444e-01 -4.963956769206475313e-07 -1.462596412755311973e-08 2.010775770498367359e-10 1.284872016534033254e-07 1.000000394187350761e+00 1.530881208223927153e-11 -1.155961755345703788e-08 -3.021353970225735540e-10
8.100000000000000533e-01 7.655529224238296983e-07 4.016615251641146298e-08 2.344109586610555184e-10 9.072439327763676212e-08 9.999990846393715938e-01 9.599224802636162725e-12 1.828337816741215481e-08 3.803377944087212706e-10
8.199999999999999512e-01 4.831752773813102870e-07 2.898833920062630493e-08 1.658930317765234322e-10 6.382334800890755092e-08 9.999994114137636947e-01 5.934986496878445275e-12 1.221783989174765830e-08 2.046207276459702330e-10
8.299999999999999600e-01 -9.525205535018351546e-07 -2.835804557864973670e-08 2.267138103622208397e-11 4.456787074738900781e-08 1.000000956888156933e+00 3.392252814522673306e-12 -1.993771734293674577e-08 -6.492664053292539533e-10
8.399999999999999689e-01 -6.811026670402033244e-08 -1.067722081729577866e-09 2.493380339330082233e-11 3.128455320854758325e-08 1.000000039112449723e+00 2.081955160137267411e-12 -1.195426131448368234e-09 -4.933721641327866900e-11
8.499999999999999778e-01 1.487665799431258660e-06 5.243284466630777447e-08 8.298230406553921894e-11 2.212788224569903904e-08 9.999984042299366882e-01 1.450887672061612895e-12 3.248254999996581684e-08 9.524592276006446769e-10
8.599999999999999867e-01 -7.263162362447361538e-07 -1.078933128364048466e-08 2.503362357107692001e-11 1.543529701442468749e-08 1.000000733909453876e+00 8.552636443999211347e-13 -1.157273116280663851e-08 -6.745290800184746474e-10
8.699999999999999956e-01 -1.911731372658308640e-06 -4.530219567641215284e-08 -8.594806578432462944e-12 1.072837782815227639e-08 1.000001983128427474e+00 4.854068975049729336e-13 -3.524044500061964048e-08 -1.534731453746482540e-09
8.800000000000000044e-01 8.536005464207566706e-07 2.139869797666694380e-08 1.552288577382049002e-11 7.537426977637021976e-09 9.999991005586297277e-01 3.224073304308804713e-13 1.618986184626228632e-08 6.812853498056096589e-10
8.900000000000000133e-01 2.551337556259805654e-06 6.431357957723847212e-08 3.476203845206775472e-11 5.320763093329449994e-09 9.999973285293174419e-01 2.346812880990206340e-13 4.840665545208313341e-08 2.005103456026915592e-09
9.000000000000000222e-01 -3.207985341617116556e-07 2.116652262757150831e-09 1.202049532895910457e-11 3.696545725102256379e-09 1.000000316557785984e+00 1.395206043748967042e-13 -1.097841131772445677e-09 -4.732860671503125331e-10
9.100000000000000311e-01 -1.595871487244915186e-07 1.809961003487795608e-10 5.491148982667182634e-12 2.570691885870896656e-09 1.000000158085680546e+00 8.449507852512424070e-14 -1.038430319191459364e-09 -2.114374731548308179e-10
9.200000000000000400e-01 1.750918326439182586e-06 3.298059069995178816e-08 8.238232566596010169e-12 1.794802016720252806e-09 9.999981850378287795e-01 5.423431106644397411e-14 2.758700082465759998e-08 1.629440730381547661e-09
9.300000000000000488e-01 2.763913370064080505e-08 4.618520694926971724e-09 3.239242717725043242e-12 1.244770114402504726e-09 9.999999633722114201e-01 3.267640566495648840e-14 3.225918231746750823e-09 -1.001341876860416420e-10
9.399999999999999467e-01 -3.027996199644065998e-07 -2.476936935579471064e-09 1.153320639620210264e-12 8.630113101346764236e-10 1.000000307389236287e+00 1.973809089993882804e-14 -2.587004038703334073e-09 -3.789304489580400722e-10
9.499999999999999556e-01 1.056754661328018330e-06 1.512978165225484922e-08 1.826267771868888717e-12 6.013576094162220212e-10 9.999989130331161657e-01 1.263960668055225165e-14 1.331027480950240900e-08 1.137163472215533974e-09
9.599999999999999645e-01 -3.560596456094392619e-08 1.924527460088117512e-09 7.893363485602776645e-13 4.164362011748895396e-10 1.000000031592546135e+00 7.720804167725331795e-15 1.811115220720901608e-09 -1.343489532884150965e-10
9.699999999999999734e-01 -9.016136112887887972e-07 -8.581357561821449761e-09 1.694750638143025275e-14 2.873487121475346687e-10 1.000000918462997213e+00 4.595160684044835562e-15 -7.380552589055472107e-09 -1.140592467593212262e-09
9.799999999999999822e-01 5.507913416728569449e-07 5.997905957573530830e-09 3.576211098846551156e-13 2.001743232689980880e-10 9.999994373086353860e-01 2.939223704675948351e-15 5.016650827370578345e-09 6.650481477858142310e-10
9.899999999999999911e-01 1.152040901438961667e-06 1.235158124835692819e-08 5.394212173591782297e-13 1.397549910820529057e-10 9.999988235002287285e-01 1.939067654639938836e-15 1.052636125630012644e-08 1.399057037100598335e-09
1.000000000000000000e+00 4.373791704061866789e-07 4.900236426730761823e-09 2.484460399837950781e-13 9.667311897977136091e-11 9.999995528693806923e-01 1.196276056159599208e-15 4.216868053752498993e-09 5.220754699549800787e-10
